svm_type c_svc
kernel_type linear
nr_class 4
total_sv 11
rho -325.10876505642864 509.56560229198124 -44.98538864611936 36.18382755179391 -25.25714733084288 -37.46250971809046
label 0 1 2 3
probA -0.47386690888856803 -0.27325886736183114 -1.7520171633594175 -1.1422720105255553 -1.7216278461547654 -1.6272338766248275
probB -0.45681748352505186 -0.4078300845882425 -0.30576928994344604 0.055271818386386264 -0.1298781470409784 -0.07168850101650875
nr_sv 4 3 3 1
SV
0.0 0.0 0.0014961098398148292 0:339.6000061035156 1:263.20001220703125 2:335.44000244140625 
0.31541469164296376 0.0 0.0 0:343.0 1:262.239990234375 2:334.3800048828125 
0.0 1.1361661467197886 0.0027558061151969826 0:331.29998779296875 1:261.44000244140625 2:340.7799987792969 
0.0 0.27124781676661425 0.0 0:335.3599853515625 1:261.3599853515625 2:332.6000061035156 
-0.31541469164296376 0.01694237904971629 0.0 0:344.55999755859375 1:264.2200012207031 2:334.29998779296875 
-0.0 0.0 3.384074594401387E-4 0:356.760009765625 1:272.3599853515625 2:338.44000244140625 
-0.0 6.537512065850001E-5 0.0045482514829398414 0:346.6400146484375 1:265.6000061035156 2:338.55999755859375 
-0.0 -0.0 0.0041978034406673255 0:337.9800109863281 1:259.2799987792969 2:342.17999267578125 
-0.36472511861527385 -0.01700775417037479 0.0 0:336.29998779296875 1:259.82000732421875 2:339.7799987792969 
-1.0426888448711291 -0.0 0.0 0:330.4599914550781 1:260.3800048828125 2:338.94000244140625 
-0.004251915955011812 -0.00488665894237998 -0.0041978034406673255 0:338.94000244140625 1:278.8599853515625 2:351.7799987792969 
