svm_type c_svc
kernel_type linear
nr_class 2
total_sv 4
rho -12.319911850096801
label 0 1
probA -1.714880874386293
probB -0.10606219191611348
nr_sv 2 2
SV
1.1788705298468128E-4 0:526.6228637695312 1:463.4314270019531 2:464.32000732421875 
8.298323670295631E-4 0:515.837158203125 1:459.5371398925781 2:460.0542907714844 
-2.548202007050546E-4 0:539.7914428710938 1:433.654296875 2:523.3285522460938 
-6.928992193091898E-4 0:484.05712890625 1:475.6285705566406 2:494.9314270019531 
