svm_type c_svc
kernel_type linear
nr_class 6
total_sv 42
rho -72.79272929077048 -9.185488736596717 -8.772258499308196 5.825682063453687 5.801033654440441 -15.72800080597022 -18.27833558281114 4.641502054604961 4.625219237110575 -6.3597792117090926 8.307937482338 9.037952357683041 8.391540585264341 8.677306588762931 -110.65730195908554
label 10 11 20 21 30 31
probA -1.2235583276634883 -3.3500813831503846 -3.3843198441666744 -3.3961411226451803 -3.252572594172409 -3.2373465702161504 -2.975436227197783 -3.524278424326536 -3.3739587018637893 -2.8173516286943454 -3.5841102082841414 -3.4268337792165107 -3.7430710502139233 -3.607421053501904 -0.5247201270428176
probB -0.25940210501794275 -0.10995213860445938 -0.004953360480976966 -0.03308308076694388 -0.18935030791395996 0.20533757995314675 -0.17414616936609212 -0.04155255058307232 -0.22794707715576001 -0.15963281118064154 0.12807781916871575 -0.011339258224458209 -0.0591943317284351 -0.15745329804468944 0.27659179485263513
nr_sv 9 6 6 6 9 6
SV
0.0185928983264474 0.0 0.0 0.0 0.0 0:322.96112060546875 1:394.5944519042969 2:339.78887939453125 3:11.30943489074707 4:41.98347091674805 5:20.90387725830078 6:298.0 7:302.0 8:305.0 9:351.0 10:445.0 11:370.0 
7.92043935164661E-4 0.0 0.0 0.0 0.0 0:323.95001220703125 1:393.0111083984375 2:336.28887939453125 3:9.87648868560791 4:42.709922790527344 5:19.510644912719727 6:307.0 7:299.0 8:304.0 9:346.0 10:440.0 11:378.0 
0.005368697104491187 0.0 0.0 0.0 0.0 0:322.1833190917969 1:388.8555603027344 2:335.6722106933594 3:10.312677383422852 4:43.76166915893555 5:21.199748992919922 6:303.0 7:303.0 8:302.0 9:345.0 10:437.0 11:388.0 
0.0 0.0 0.0 9.426796470845732E-5 1.1776611257610225E-4 0:327.78887939453125 1:389.9666748046875 2:333.0888977050781 3:11.732580184936523 4:46.37852096557617 5:20.245771408081055 6:311.0 7:278.0 8:301.0 9:365.0 10:440.0 11:390.0 
0.0 5.01063598638433E-6 0.0 0.0 0.0 0:328.3666687011719 1:392.76666259765625 2:335.3999938964844 3:11.685797691345215 4:44.73798751831055 5:21.407596588134766 6:306.0 7:292.0 8:300.0 9:359.0 10:438.0 11:401.0 
0.0 0.0 0.0 1.4610633234218751E-5 1.92500755784542E-5 0:330.8444519042969 1:392.43890380859375 2:328.95556640625 3:4.686642169952393 4:43.33074188232422 5:14.168091773986816 6:321.0 7:295.0 8:299.0 9:342.0 10:439.0 11:356.0 
0.002493645556508765 0.0 0.0 0.0 0.0 0:345.22222900390625 1:409.8277893066406 2:337.75 3:4.823797702789307 4:38.652862548828125 5:23.140302658081055 6:332.0 7:320.0 8:294.0 9:353.0 10:460.0 11:377.0 
0.001134445337450541 0.0 0.0 0.0 0.0 0:343.6944580078125 1:410.45556640625 2:338.2388916015625 3:5.089261531829834 4:38.79301071166992 5:24.510257720947266 6:330.0 7:313.0 8:298.0 9:357.0 10:466.0 11:385.0 
0.0 1.4968434438403583E-4 1.49151726311719E-4 0.0 0.0 0:344.95556640625 1:411.04443359375 2:338.8222351074219 3:6.268491744995117 4:40.29747009277344 5:28.995311737060547 6:329.0 7:321.0 8:291.0 9:364.0 10:467.0 11:411.0 
-0.02346385511508259 0.0 0.0 7.875927845399133E-5 9.180827340219144E-5 0:325.1499938964844 1:397.1611022949219 2:334.0666809082031 3:6.827053070068359 4:39.990779876708984 5:16.49871253967285 6:308.0 7:306.0 8:306.0 9:335.0 10:444.0 11:364.0 
-0.004793463190554638 0.0 0.0 5.617913944465074E-6 1.2793434073532414E-5 0:322.727783203125 1:402.6055603027344 2:364.23333740234375 3:21.89150047302246 4:35.32790756225586 5:28.921403884887695 6:278.0 7:311.0 8:322.0 9:408.0 10:452.0 11:434.0 
-0.0 2.757470550782572E-4 0.0 0.0 0.0 0:318.03887939453125 1:404.48333740234375 2:367.23333740234375 3:17.737205505371094 4:32.578487396240234 5:20.97273826599121 6:285.0 7:315.0 8:337.0 9:347.0 10:440.0 11:432.0 
-0.0 0.0 2.203292729822505E-4 0.0 0.0 0:318.78887939453125 1:402.9888916015625 2:366.6444396972656 3:16.493087768554688 4:33.41240692138672 5:22.471261978149414 6:281.0 7:329.0 8:336.0 9:347.0 10:438.0 11:415.0 
-1.244119544253251E-4 0.0 0.0 0.0 0.0 0:326.0555419921875 1:405.54998779296875 2:342.4111022949219 3:18.520606994628906 4:32.1968994140625 5:27.10908317565918 6:292.0 7:331.0 8:289.0 9:351.0 10:452.0 11:405.0 
-0.0 0.0 1.1211326811246271E-4 0.0 0.0 0:327.8444519042969 1:410.6000061035156 2:345.6444396972656 3:16.298154830932617 4:27.12841796875 5:20.128520965576172 6:297.0 7:352.0 8:313.0 9:351.0 10:459.0 11:392.0 
-0.0 -0.0 0.0 5.4687593093980625E-5 6.418848722328265E-5 0:348.0888977050781 1:382.79998779296875 2:424.5722351074219 3:5.531322956085205 4:29.455848693847656 5:24.71695899963379 6:332.0 7:326.0 8:359.0 9:360.0 10:421.0 11:456.0 
-0.0 -2.704634027299818E-4 0.0 0.0 0.0 0:344.22222900390625 1:393.0833435058594 2:422.5777893066406 3:5.459403038024902 4:28.319963455200195 5:30.72584342956543 6:327.0 7:330.0 8:350.0 9:356.0 10:426.0 11:458.0 
-0.0 -0.0 4.7394626429877296E-4 0.0 0.0 0:351.6333312988281 1:400.8166809082031 2:419.8777770996094 3:8.092975616455078 4:24.923187255859375 5:30.904356002807617 6:333.0 7:341.0 8:350.0 9:371.0 10:432.0 11:464.0 
-1.5469498037042016E-4 -5.283652348275394E-6 0.0 0.0 0.0 0:348.6222229003906 1:397.45001220703125 2:420.29998779296875 3:6.960500240325928 4:27.868057250976562 5:29.186147689819336 6:332.0 7:339.0 8:346.0 9:366.0 10:440.0 11:454.0 
-0.0 -0.0 4.5614920058063575E-4 0.0 0.0 0:341.6055603027344 1:397.6444396972656 2:423.2611083984375 3:8.447968482971191 4:23.3583984375 5:21.366811752319336 6:330.0 7:349.0 8:379.0 9:358.0 10:424.0 11:467.0 
-0.0 -0.0 1.1413480609521934E-4 0.0 0.0 0:342.4222106933594 1:399.1166687011719 2:422.1000061035156 3:4.393974304199219 4:24.429866790771484 5:21.31621551513672 6:331.0 7:349.0 8:381.0 9:353.0 10:433.0 11:462.0 
-0.0 -0.0 -2.69991479815991E-4 0.0 0.0 0:363.5111083984375 1:401.8500061035156 2:415.272216796875 3:14.14352035522461 4:14.192422866821289 5:17.114421844482422 6:343.0 7:363.0 8:375.0 9:393.0 10:422.0 11:443.0 
-0.0 -0.0 -3.852699881298483E-4 3.072540220248314E-5 3.561535453768535E-5 0:371.3722229003906 1:400.0333251953125 2:415.31109619140625 3:15.047415733337402 4:15.074844360351562 5:19.37033462524414 6:346.0 7:360.0 8:371.0 9:398.0 10:424.0 11:444.0 
-3.3220097667120204E-5 -0.0 -0.0 0.0 0.0 0:368.22222900390625 1:403.04998779296875 2:413.4277648925781 3:14.480023384094238 4:14.521136283874512 5:18.57044219970703 6:346.0 7:365.0 8:365.0 9:399.0 10:441.0 11:443.0 
-0.0 -2.837765728471985E-4 -0.0 1.591097167990881E-5 1.663762521148564E-5 0:330.5333251953125 1:412.6499938964844 2:392.0666809082031 3:13.20040512084961 4:8.706562995910645 5:21.623926162719727 6:306.0 7:390.0 8:350.0 9:356.0 10:429.0 11:425.0 
-0.0 -0.0 -3.8896880302878865E-4 0.0 0.0 0:332.1555480957031 1:409.47222900390625 2:401.4222106933594 3:14.424857139587402 4:9.593096733093262 5:20.029577255249023 6:305.0 7:390.0 8:365.0 9:354.0 10:433.0 11:444.0 
-1.1593162864459879E-4 -4.866596824751465E-5 -0.0 0.0 0.0 0:333.5944519042969 1:416.6555480957031 2:388.47222900390625 3:11.676103591918945 4:9.582536697387695 5:23.702865600585938 6:306.0 7:395.0 8:349.0 9:355.0 10:449.0 11:430.0 
-0.0 -0.0 -0.0 -0.0 0.01768914282976427 0:360.02777099609375 1:288.3500061035156 2:342.52777099609375 3:13.323851585388184 4:24.171253204345703 5:8.793363571166992 6:339.0 7:238.0 8:316.0 9:401.0 10:347.0 11:363.0 
-0.0 -0.0 -0.0 -0.0 0.3951732228075239 0:355.50555419921875 1:287.6388854980469 2:343.4666748046875 3:9.035317420959473 4:17.8609619140625 5:9.918886184692383 6:339.0 7:251.0 8:319.0 9:382.0 10:328.0 11:364.0 
-0.0 -0.0 -0.0 -0.0 0.04808286581984 0:359.1277770996094 1:289.9277648925781 2:338.9444580078125 3:16.468050003051758 4:23.960186004638672 5:9.801799774169922 6:333.0 7:215.0 8:305.0 9:401.0 10:349.0 11:362.0 
-0.0 -1.678537671635502E-5 -0.0 -0.0 0.0 0:360.0944519042969 1:298.3833312988281 2:323.5666809082031 3:10.687359809875488 4:18.76265525817871 5:12.846391677856445 6:338.0 7:272.0 8:300.0 9:380.0 10:354.0 11:355.0 
-0.0 -0.0 -0.0 -4.3889115947512584E-5 0.0 0:359.26666259765625 1:296.3222351074219 2:327.1222229003906 3:12.559388160705566 4:16.89789390563965 5:11.805055618286133 6:334.0 7:275.0 8:306.0 9:377.0 10:347.0 11:360.0 
-0.0 -1.344339530070472E-5 -0.0 -0.0 0.0 0:352.46112060546875 1:298.1388854980469 2:323.3500061035156 3:12.891196250915527 4:15.738712310791016 5:14.500792503356934 6:325.0 7:272.0 8:294.0 9:381.0 10:349.0 11:353.0 
-0.0 -0.0 -0.0 -0.0 0.13410158870084254 0:360.2611083984375 1:292.0833435058594 2:332.7166748046875 3:8.428047180175781 4:19.748685836791992 5:13.049667358398438 6:341.0 7:265.0 8:305.0 9:383.0 10:355.0 11:361.0 
-0.0 -0.0 -0.0 -0.0 0.6281086077216064 0:356.2166748046875 1:292.95001220703125 2:328.8722229003906 3:10.337448120117188 4:21.712505340576172 5:13.679908752441406 6:332.0 7:256.0 8:296.0 9:382.0 10:364.0 11:359.0 
-1.0887859794267607E-4 -5.4148420381396676E-5 -5.4687593093980625E-5 -2.747257934879354E-6 0.003935217128446677 0:355.46112060546875 1:292.95556640625 2:329.1222229003906 3:10.116275787353516 4:21.507137298583984 5:13.855456352233887 6:337.0 7:260.0 8:298.0 9:381.0 10:363.0 11:371.0 
-0.0 -0.0 -0.0 -0.0 -0.10189920033082227 0:354.52777099609375 1:287.8055419921875 2:339.95556640625 3:9.436922073364258 4:17.767309188842773 5:6.914339542388916 6:327.0 7:261.0 8:325.0 9:367.0 10:349.0 11:364.0 
-0.0 -0.0 -0.0 -0.0 -0.04055566993584246 0:355.8055419921875 1:287.5777893066406 2:338.8888854980469 3:8.266557693481445 4:18.568618774414062 5:21.25156593322754 6:337.0 7:252.0 8:201.0 9:385.0 10:333.0 11:364.0 
-0.0 -0.0 -1.444849628648809E-6 -0.0 -0.06290913408433994 0:359.3222351074219 1:292.25555419921875 2:333.1555480957031 3:8.4797945022583 4:19.930086135864258 5:12.103775024414062 6:340.0 7:254.0 8:307.0 9:388.0 10:347.0 11:403.0 
-1.3701618815455645E-4 -1.0460170747572386E-4 -6.274363759463385E-5 -5.2252979749171E-5 -0.0 0:355.54443359375 1:291.522216796875 2:332.5333251953125 3:8.00370979309082 4:21.8328857421875 5:13.776501655578613 6:332.0 7:264.0 8:307.0 9:372.0 10:389.0 11:376.0 
-0.0 -0.0 -0.0 -0.0 -0.7774161967225772 0:358.0 1:292.24444580078125 2:333.1777648925781 3:9.183404922485352 4:22.246097564697266 5:13.906002044677734 6:335.0 7:254.0 8:302.0 9:387.0 10:359.0 11:360.0 
-0.0 -0.0 -0.0 -0.0 -0.24431044393444176 0:353.0333251953125 1:288.6166687011719 2:337.8333435058594 3:7.8440937995910645 4:18.095443725585938 5:6.721494197845459 6:339.0 7:248.0 8:323.0 9:375.0 10:329.0 11:352.0 
