svm_type c_svc
kernel_type linear
nr_class 6
total_sv 21
rho -29.69454153258506 14.547311336454044 16.835841714169085 -70.32738262420445 -60.84958352209251 14.454477176992635 16.51178051105738 -72.50393142303301 -43.00877602934293 -78.66434856790265 -11.958393719507175 -14.582307282165274 -13.57007219711794 -18.416682877757054 152.46720021745196
label 10 11 20 21 30 31
probA -2.099493696901217 -2.2706775175310074 -2.2905817754452684 -1.9701099845535952 -2.1082387401413505 -2.2431526767245535 -2.2656197808324854 -1.8594541694330715 -1.6941053940977167 -1.1305847594641518 -2.217783139154787 -2.1526882834570698 -2.2750247999727202 -2.2175274395073075 -0.46242634170043123
probB -0.17795560971695637 -0.0709719989963757 0.060941093209837725 -0.09322001119220763 0.12535066994881774 0.02705073173270278 0.12840453545538394 -0.08300402817600624 0.30305647664591945 0.5349418931058494 -0.04433660334503254 0.02971460466594575 -0.14067831261037536 -0.09412230943764169 -0.6095605833724532
nr_sv 5 5 2 2 4 3
SV
0.0 1.5817071213641937E-4 2.2819489918637662E-4 0.0 0.0 0:483.6600036621094 1:564.8713989257812 2:557.8285522460938 
0.0 0.0 0.0 0.0 0.003999154528773465 0:491.4371337890625 1:568.21142578125 2:559.6428833007812 
0.0 0.0 0.0 0.00304384450426814 0.0 0:499.29998779296875 1:566.3800048828125 2:558.9885864257812 
0.0027797092288330124 0.0 0.0 0.0 0.0 0:495.1142883300781 1:565.9457397460938 2:559.4342651367188 
0.0013316180013055305 0.0 0.0 0.0 0.0 0:499.7771301269531 1:562.394287109375 2:558.8200073242188 
-0.0041113272301385425 0.0 0.0 0.0 0.0 0:494.45428466796875 1:558.3028564453125 2:580.2000122070312 
-0.0 0.0 1.3243922738924712E-4 0.0 0.005493850662194338 0:487.2457275390625 1:560.4085693359375 2:580.5657348632812 
-0.0 0.0 0.0 0.0030306273696166356 0.0 0:495.5657043457031 1:559.6456909179688 2:582.874267578125 
-0.0 1.386533470943425E-4 5.9621928577654836E-5 0.0 0.0 0:487.1199951171875 1:554.5514526367188 2:586.4257202148438 
-0.0 0.0 0.0 0.0013045376868290155 0.0 0:516.1028442382812 1:551.5228271484375 2:581.8857421875 
-1.5817071213641937E-4 -1.1672742160397011E-4 0.0080746860568759 9.686255475998912E-5 1.4632891358480127E-4 0:408.3828430175781 1:488.3114318847656 2:524.414306640625 
-0.0 -2.1925925490372392E-5 0.0 0.0 0.0 0:414.30572509765625 1:474.21142578125 2:532.7371215820312 
-2.2819489918637662E-4 -1.9206115596690195E-4 -0.0 1.2891530516960986E-4 2.2608131558042585E-4 0:409.3714294433594 1:512.69140625 2:534.9628295898438 
-0.0 -0.0 -0.0080746860568759 0.0 0.0 0:407.9085693359375 1:503.3114318847656 2:529.1571655273438 
-0.0 -0.0 -0.0 -0.0 0.015900889545959696 0:502.7828674316406 1:586.780029296875 2:576.2999877929688 
-0.001458506907771366 -0.0 -0.0 -0.0 0.0 0:507.6285705566406 1:583.7457275390625 2:576.280029296875 
-0.0015853375964967743 -0.0018255236883607524 -9.686255475998912E-5 -1.2891530516960986E-4 0.025060820944004785 0:503.79144287109375 1:579.9457397460938 2:580.5228271484375 
-0.0 -0.002509641368084899 -0.0 -0.0 0.0 0:513.9857177734375 1:574.8400268554688 2:588.4600219726562 
-0.002800982085567372 -0.0031084336094587086 -0.0 -0.0 -0.04096171048996448 0:496.46856689453125 1:581.797119140625 2:579.2457275390625 
-0.0 -0.002385417052735629 -0.0 -0.0 -0.0 0:466.20855712890625 1:575.394287109375 2:578.8200073242188 
-0.001198172443206093 -0.0 -1.4632891358480127E-4 -2.2608131558042585E-4 -0.0 0:464.79144287109375 1:577.78857421875 2:574.1714477539062 
